encog,BasicNetwork,java,3.1.0,1,1365559076905
[BASIC]
[BASIC:PARAMS]
[BASIC:NETWORK]
beginTraining=0
connectionLimit=0
contextTargetOffset=0,0,0
contextTargetSize=0,0,0
endTraining=2
hasContext=f
inputCount=10
layerCounts=1,8,11
layerFeedCounts=1,7,10
layerContextCount=0,0,0
layerIndex=0,1,9
output=0,0,0,0,0,0,0,0,1,0,0,0,0,0,0,0,0,0,0,1
outputCount=1
weightIndex=0,8,85
weights=2.6153461188,-0.0046787205,-0.0063415684,2.4628183516,1.4079149774,-0.3965106557,5.1292387907,-7.4532959865,-11641.0215537862,220777.7645169769,5.3581776959,-2.5471900253,0.1712257225,2.6215098718,4.2264671162,3.9483217812,8.1806942631,-112.159370496,73.8631948579,-69336.4378999462,227919.8727615489,90166.1074863216,153239.4412711021,165075.6792972863,117661.2232865637,-181689.9572936209,-80513.455592069,-64548.2935785796,-181005.6317269261,-3.9483146115,-106111.221905479,-90548.2741117525,-59363.6317829054,-66741.1212448146,-58823.3734124449,6517.19807265,7686.8056818184,93481.1135253991,-32572.9063714604,92590.5709602934,12.2188666997,1.0650262185,-1.3460341048,-0.5923936774,0.0293418688,0.6741400382,0.6505075529,0.5530234167,14.018669175,1.1003624229,15.6440499826,-10.6320382524,1.9139690652,-2.6331550526,-0.1463263298,4.425661802,1.4720233428,-0.4898749362,8.0800405928,-1.604639729,-5.2445403652,11.8485110479,-5.1195364316,50284.7897295962,-145867.3925143275,-191026.8280221875,-212341.9711406638,-222506.5117995999,-167358.3392269387,78245.460963282,91046.8355152743,104873.5500298748,246832.4200449783,-4.9059416424,0.9309910285,0.620188244,-0.1560903153,-0.7993043882,-0.3173831188,-0.2127060297,-0.6189758912,-2.2245193474,0.754648373,4.9286769533,0.7778323316
biasActivation=0,1,1
[BASIC:ACTIVATION]
"ActivationSigmoid"
"ActivationSigmoid"
"ActivationLinear"
